{"W1":[[0.11508519863712835,-0.46317044544434988,-0.11742324201740111,-0.082990321966459848,-1.9268967941047386,2.4660988581827321,0.12453163077923296,0.10080672361886645,0.10400247634180292,-0.50407229620399907,-0.25117449955196386,-0.49112058185066682,-0.54128134740934419,1.1263849995392412,1.0718190862957606,-0.40533219278623828,-0.37301273446635375,-0.35870523758460121,0.64968813392511793,0.75506515846474265,-0.10559160200894048,-0.13338892155982637,-0.0071548057333072511,-0.22529289347030773,0.16644019231135376,-0.11759021056027123,-0.057993286073027131,0.080160222258736855,-0.090704341626425933,-0.25412496188852723,-0.25641096099280591,-0.22742671212857396,-0.30530474045973222,-0.11824895062620186,1.4215984211530868,-0.2762639107085787,0.1284951055119998,0.1297491016705844,-0.66964347721795447,-0.26594499011184336,-0.0082220377433985074,-0.44856606888358652,1.2798548439305064,1.8389133007788965,-0.20501693718841882,-0.29749696452541646,-0.20490708417894465,-0.15698732340688884,-0.18791525853491284,0.32248001292698175,0.60858275335202516,-0.33763548700220236,-0.37597477973385413,0.0767125991767002,-0.34131853111433841,-0.2789738478882835,-0.25263549619490983,-0.11602862052191078,-0.28301130676584663,-0.22102803886082972,-0.31907918098086679,-0.261478011841861,-0.30215387845380248,-0.24477417120211023,0.15056335588236586,0.20278959432749463,-0.2087604863923094],[0.37867398073112546,0.21291081940299986,0.657877945875912,0.22374187720346103,-0.35621284517777413,1.2036793077395762,0.30277467630409211,-0.3412934997728389,0.00078234391315686372,0.59526215607012856,-0.95249749898146407,0.69296520191277011,1.156121471297163,0.33413328342512916,0.39976163455427971,0.46965568360890342,0.43300644709100294,0.040182523833399542,-0.44846401824688353,0.055275890890320145,-0.80220455530193346,-0.036818746854155995,-0.0059909499270542933,0.11390929452062069,0.024241828920792116,-0.39031078323655244,-0.075067591849710957,0.23013421398962949,0.10749935091301957,0.016926290336423698,0.36594794837237965,-0.49781469345691415,0.30115708308327654,-0.001682181804377601,-0.24362307336870279,-0.0748647583820216,-0.055574114133994761,-0.49329468679111954,-1.0742470524546153,-0.87975929540992015,-0.76514329984813323,0.13233125184131958,0.25158590702178346,-2.2563280571259785,-0.63020642999712773,-0.2070146737102955,-0.40309745178483614,-0.25324270033055196,-0.26706344945361316,0.23573829301798385,0.73180818989425778,0.34202246804260422,-0.13609145618070695,0.32639567447271389,0.36103646975159936,-0.34937623674688945,0.21056426966803282,0.063959364666537968,-0.53914621438694732,-0.64924714193351185,-0.40267295881011844,-0.18771257070303432,-0.17607601380227969,-0.22528677624496415,-0.12244630618669761,-0.061392131622356121,-0.19404249254255734],[0.37934660784986657,0.33400479687983564,-0.17091433481998872,0.1191924181563076,0.13366053568484554,0.032183415635592273,-0.49227947569379715,0.1888872748000455,0.67162958748516022,0.58106042648663581,-0.40842950934272815,0.5976292246891286,-0.34745039382015291,2.3032254668084939E-5,-0.91637565633001039,0.02879946052841666,-0.036324630077904152,0.30631862592653786,-2.8398287749909432,0.33231390854087289,-0.19673935669143011,0.081925648139102317,0.28064083943950147,-0.059812750460667974,-0.21608436863253846,-0.13815421592481733,0.27787138299082642,0.10434796916947611,-0.023636481980059177,-0.087378011180542559,0.21147085319413256,0.17751836154191819,-0.12790734241178781,-0.16079169874593682,0.16396491628314436,0.18641515271729933,-0.20604698655083703,-1.1339277214584711,-0.25377621298404013,-0.49184394907126638,-0.099039377388232,-0.9810749870717077,-0.023622351064996328,0.035623928349007863,-0.0948289569201786,0.0519261906285576,-0.073756792779873445,-0.16026707495638595,-0.1218881565979829,0.966739652714731,-0.20374954984737065,-0.31673143554739353,-0.24571502056192474,-0.10587045896618237,0.010781727513919141,-0.12542063189607081,-0.028815463835709834,-0.073550833977174754,0.14391757054344745,-0.086264861797163681,-0.095973984279487154,-0.041839089431518484,0.025818833150304171,-0.20521227055322774,0.25655610846467963,0.20295992335543497,0.23610547296760762],[-0.00019091218009128813,-0.11357831515349553,0.092788084142009911,0.0891913529243593,0.42498728281007997,0.36452428002500858,-1.6104698969444717,0.60349763018452252,-0.67525665915570687,-0.53966603330576735,2.4377449984895176,-0.046407059008228488,-1.48584994290781,0.56727028178203609,0.0040430445900553275,1.118320950499988,-0.27347446148008808,0.050637489305326126,0.23326824281986008,-0.057768624553393912,-0.33408308144386861,-0.045361598475158214,-0.087629011205019661,0.15350128425323675,-2.5990109400200989,-0.10284790408931815,0.16158064043448378,-0.21784522166231404,0.32267534664533049,-0.22348243169979953,0.14662372839751234,0.357056364207307,-0.138089057216913,-0.0854307421404493,-1.7721386628055102,-0.16946743459678898,-0.13931328551740557,-2.6412026052673676,-0.7460925599459528,0.882207078659203,-0.20279404743230753,-0.030544833440647633,1.6765850074086066,0.80295096313939729,-0.08669995624411525,-0.27743027535618126,-0.04561360650246065,-0.17023138597977364,-0.13859222227859877,0.23484894977973625,-0.24751349883456214,1.4286317870656433,-0.052767282405366808,0.0506687495611194,0.084682381752298072,-0.1823613797091683,-0.17954764825699207,0.63259271989806376,0.50018674131856022,0.67127494982774139,0.23109839824827719,0.31178139090752921,0.47166722927149646,0.40624024497455596,0.18124548943862734,0.25670522248122157,-0.23974336461051018],[2.2473708346372656,2.7403382441887914,-0.053225393938148152,-0.15389918327865651,-0.24045667926971243,0.034246867237870855,0.24840101567697925,0.0501809622633312,-0.76915378992968964,-0.46993139218804958,0.23266431908605012,-0.58243103763992576,0.26184942546965373,0.047089794536431091,0.18146922837317206,-0.0024008159793614237,-0.35407820635724968,-0.35880181528098459,0.36078423313736641,-0.15510637610262712,-0.6900464981507487,-0.34477589454474494,-0.37005684405838374,0.18210693433726874,0.078352398490814684,-0.30837529842333877,0.21879488994905677,0.11256807671597117,-0.044827548654585478,-0.0088098187860765464,-0.26869559372298973,-0.17156763140731904,0.18444490385083734,-0.23881326956026125,0.028229295866410903,0.154336385580078,-0.21239178935974729,0.083169621601969834,0.84626688708367348,0.087959566846398121,-0.59095951166891747,-0.0077268477901541932,0.19812716948278605,-1.0837399866456585,-0.40491103912809506,0.36825395791513732,-0.25384164921178676,-0.43942861645855941,-0.27071583802242333,0.4545029809612281,0.91692085025799708,0.55251558300609538,0.99146076267812389,0.38104019298458136,-0.1514873534002375,1.2668629573212351,0.0067157602755087455,0.161651774468333,-0.53490294901132973,-0.31880962418237596,-0.16387721416212442,-0.16750198159137675,-0.083638515955088241,-0.302553543327513,-0.11124445555193596,-0.1438454748575089,-0.079639892306488227],[-0.033287290123176057,-0.18473981714655405,0.16966971061484326,0.094244399595120515,-0.89607924114142135,-1.221946563690159,2.8025005402093432,-0.91502011615622281,0.49361997637170729,-0.70651341970450832,-0.93201030924162487,-0.67514291653120739,0.57958271271834072,-0.62653200108001039,1.9632132714011279,0.24589219000800702,-0.59901171935588626,-0.2126884385962293,0.47908555734320524,0.684135302689991,0.87862656834402153,-0.36302088165608543,0.14504066594751033,-0.0746434304433629,-0.0036365411532828904,-0.045920257098651343,-0.049871849689077992,-0.26105647437957769,0.10963406553169684,-0.20104423213280798,0.044225605394877986,0.0056747953249747882,-0.29109959700833971,0.10017973456270149,0.80643318243082007,-0.08454769519117547,-0.014796497858438225,1.5117041610640902,1.183154331061866,-1.5410653595961028,0.68926757417384665,0.69689597935350689,-2.0322292469134244,1.6476092713879205,0.026503230927515567,0.76348288001026565,0.35651729169749508,-0.24199191317478072,0.28029910650327033,0.2503965327995803,-0.36935823979186128,-1.7569307065074788,-0.35039866558028548,-0.24057452795242051,-0.28382126916803274,-0.93053113252797448,-0.16944875487969269,-0.014849243788448751,-0.40565438457236558,-0.2126397629928401,-0.14478423727678377,-0.10889322952183432,-0.047912419170383365,-0.19989014502022093,-0.07197284166527268,0.22604866576380295,0.18961143605645089],[-0.6441898531923369,0.090147762799747608,-0.21577727874890509,-0.30738763921176931,-0.45680822731003135,-0.21904860919002148,1.2778137101161662,-0.0016199966852806929,0.60222891360671327,-0.35921574784124538,0.0901523161988973,-0.11721687537798614,-0.146986843881718,0.68316120375093514,0.14135687755739385,-1.1561670738875824,-0.11862877692653047,-0.28926130693323887,0.210752809901341,0.25441679766510777,1.3358598198510407,0.01092673883880679,-0.363754664489693,-0.0677134780763027,0.524506593102768,0.63190783311809184,0.080994898414360375,-0.17014697638652032,-0.0179881180061795,0.098249910226262449,-0.058088094919730625,-0.2061242357312634,0.10286635640648598,0.073264040198437089,-0.41058053283851437,0.0062328528159089711,-0.29195044150901683,-0.54281443213184888,-0.34994559194337954,-0.13640436463053576,1.0967299381962572,-0.44214988522172466,0.41042365848922879,2.71838512738743,0.67388864491080325,1.0731622071548872,-0.14039202000416931,-0.34286660843455946,0.67189948485897821,0.48039323483383184,-0.53289432587344243,-1.1772410298777767,-0.33264003889788707,-0.24081697295164864,-0.26882371118091658,-0.62502655049640876,-0.24688010967710858,-0.097940752408812268,-0.48031342623986806,-0.24786306391656274,-0.13174711690605348,-0.3281201405353012,-0.066448080963072781,-0.15041807541586408,-0.13287963031933481,0.062794956197345153,-0.064221148375009626],[-0.35418473251988386,0.073168417712879727,-0.093907805861598886,-0.078688353961701291,-0.26601936243367952,-0.4554938695099871,-3.5702915108742315,0.070371107950892325,-0.905778027199288,0.830807212493174,0.89480976351560015,0.579642724428386,-1.0674017554562649,0.48608745496497613,-0.026214245795627329,-0.79619126121026007,0.42020103931756425,0.2122059588404501,0.21936325159144066,0.39682685201883128,0.035803792082449035,0.25681000627713779,0.20420477623364192,0.24466247508376088,-1.1944568849616266,0.1074226669731819,0.10185048234511045,0.23978960868784005,0.12682564453753706,0.047929937454295989,0.1139399549741973,0.42104735036758117,0.28827810981986451,0.12021895857315949,-1.041169846935295,0.20301667284199043,-0.065469762662582073,-0.95126369957109935,0.55541201662151463,0.61377933898927461,0.022193524170455302,-0.090564232709183567,0.7528826140688345,1.9959118251353996,-0.22490321914072733,0.4792352606945543,-0.149237369503306,-0.16806519385071125,-0.20761820758872693,-0.28607261680497792,-0.60343872047866542,0.58529818650604049,-0.38933431401686863,-0.18357201566180506,-0.21190491115407215,-0.44583131735868337,0.14323679181522514,0.075368651969061021,0.4340008216623048,0.32447698167343869,0.20634428810953534,0.23928737031165509,0.069187884038141537,0.8119491887784589,0.011559745996907681,0.23185025720435015,-0.068777948304957454],[-0.017264641322104732,-0.043417603687133648,0.18699222353403563,-0.056217875458921131,-0.030559346496738703,0.27385818054777028,-0.15142193871930057,0.18214881254407142,-1.0834557851252826,-0.95734347185941659,-0.24999174063793592,-0.73225448848057662,2.1850326236112712,0.082403777221678534,0.48595611631935931,0.95134066880730017,-0.56218028030337264,-0.57522258081207533,0.91480317097515618,1.5003211848271811,-0.84822376569539748,-0.19356425074786859,-0.23270830899103023,-0.11778412050677065,1.1191188933986389,0.13320188437893113,-0.29748535069099258,-0.3574795322875029,0.04319334713910758,-0.36715143615639129,0.16902273813561641,-0.36752422470347773,-0.2237968187961224,-0.21687421127719003,2.8527796138368173,0.14418553326495176,-0.1779953385740228,0.90222081041106994,-0.877872861621305,0.48251807735822377,-0.65639437035409842,-0.018526745971755857,-0.05949857949180129,-1.7983267129189713,-0.28815292852128388,0.13829565127369503,-0.27720307659769966,-0.15678574440752713,-0.31356139720610321,0.2102862333475545,0.28443516697950288,0.98507623373108422,0.68790450197031516,0.25922205033538942,0.38585504948079979,-0.080233834492101447,0.596984928809966,0.010802547938847367,-0.85067392675057152,-0.45652725991392978,-0.2917346249570143,-0.27911413705507343,-0.18535007187207489,-0.11921503580382466,-0.074475668337329964,-0.14572367212299131,-0.084341425161480091],[-0.038676906208071807,1.6733181363128788,-0.054450448463910013,0.048293997794486239,-0.27002094100258678,0.23577332489783961,0.12410226376051847,0.0283801860728075,0.70024063422985472,-0.41769611186562394,-0.18236418675223223,-0.67048060873875615,0.82419087629876242,0.14376835041528432,0.204544103349281,0.20628247322139562,0.00066815749813109253,-0.28542848234449203,0.2940586462757851,-0.19825410426546086,-0.1382608620230357,0.0012234041344420423,-0.091063810781128574,-0.28047287448618058,0.26763156286796369,-0.024078906805284864,0.20274507232858346,-0.21013643236260371,0.1249814912812008,0.20372977613439278,-0.077598612149540808,-0.21976955132775902,-0.29354958926900726,0.060142224652239874,0.20854944627110122,0.33843722223185874,0.28456858551121267,0.0555131788756159,1.3208115948833947,-0.059108824482398993,0.10053636293725615,-0.010247134833800697,0.31923660346232696,-0.86829108724331694,0.25163902795930027,-0.003506976793737022,0.26386108299702771,0.64659260133487706,-0.31357997092358575,0.44259955899201425,-0.38655254345958484,-1.0645699375672042,-0.30817905937317608,-0.2749380460055546,-0.20254232387569368,0.46830959818798995,-0.35522537102040558,-0.14775429806361237,-0.497238692390176,-0.263555484746039,-0.1802807408031171,-0.26218692456037918,-0.17997347973380576,-0.18160367006809891,0.027754697757397685,-0.23278784514588488,-0.26642123446683807]],"b1":[1.6621221586880426,3.1603019597721009,-0.82610115174707532,-0.71330182013856258,1.8708547395250081,1.359788442650061,1.9329877771246913,-0.30565058514995785,2.1720771095790714,2.2715531325530289],"W2":[[1.0732524944703137,-0.15034158265019434,-0.730756124030525,1.5038173221138234,0.38019844897946109,0.9993204896006499,0.29131948291658633,-1.1808732380251059,1.3303806796399111,-0.93388966861847356],[-2.9991298915726317,1.6813910958072078,1.5456139274197458,-4.0169841813401455,-1.3977414923028881,-4.271248870910509,0.573117209994897,0.59923293971373193,-3.167215233998165,0.10059473635736225],[1.4872125285715074,-0.88131486922928615,0.4247837977431263,0.95698734543705832,0.60477890926101507,1.395361967733288,-1.9260970773680843,2.3743154983735879,0.39772911656213544,-1.5499680264546472],[1.0095988753542089,-1.0250150313345576,-1.5030065997872282,1.0193600102116884,-1.1036127325312126,1.2357785395358398,0.61697611752130477,-0.78907108313396,0.94359439131136214,1.3806868589591119]],"b2":[0.51362818901428953,0.32917359494159032,-3.9460008228746744,3.1031990389155006],"mu":[0.83031249999999335,0.62111607142855907,0.42254464285713528,0.135535714285713,0.15468749999999845,0.344017857142853,0.37736607142856504,0.093080357142856354,0.034642857142856844,0.026651785714285482,0.2628124999999964,0.02428571428571407,0.17276785714285478,0.050357142857142378,0.05374999999999952,0.018124999999999825,0.0081249999999999222,0.0077678571428570677,0.021517857142856932,0.19566964285714,0.013794642857142724,0.0026339285714285471,0.0024999999999999771,0.002008928571428553,0.058392857142856656,0.0018303571428571258,0.00089285714285713459,0.00089285714285713459,0.00093749999999999151,0.000848214285714278,0.000848214285714278,0.0028571428571428307,0.00071428571428570778,0.000491071428571424,0.0803571428571419,8.9285714285713472E-5,4.4642857142856736E-5,0.073080357142856517,0.024374999999999779,0.17674107142856832,0.0082589285714284918,0.016205357142856987,0.11776785714285545,0.077366071428570549,0.0056249999999999486,0.0070089285714285063,0.0033482142857142552,0.001830357142857126,0.0012946428571428451,0.0024553571428571203,0.0084821428571427732,0.039017857142856813,0.0039732142857142492,0.0028124999999999743,0.001830357142857126,0.000848214285714278,0.00035714285714285389,0.00031249999999999713,0.016562499999999845,0.0041964285714285333,0.002008928571428553,0.0019642857142856962,0.0011607142857142751,0.00058035714285713756,0.00040178571428571065,0.00013392857142857019,8.9285714285713472E-5],"sigma":[0.37536641101696244,0.48511998882170093,0.49397526357412591,0.34230252013047152,0.36161459466136259,0.4750575187215656,0.4847384958492551,0.29055149804249525,0.18287761655678381,0.16106714806402922,0.44017126147708724,0.15393822224539602,0.378054897182983,0.21868570139638482,0.22552873027385176,0.13340644248453259,0.089773850129924768,0.087794428292639,0.14510609551968623,0.39672416117910708,0.1166402934229222,0.051255324341266881,0.049938575601384691,0.0447770285476959,0.23449005542072429,0.042744455804674196,0.02986803935417251,0.02986803935417251,0.03060494909419802,0.02911241409637827,0.02911241409637827,0.053377024871229889,0.026717173813949613,0.022155184279704785,0.27185137795809583,0.0094489008957851419,0.0066815310478105482,0.26027416846059126,0.15421388091836721,0.3814579414407111,0.090504609516248044,0.12626739604556322,0.32234023562654723,0.26717737403230357,0.074790434479895071,0.0834272989559986,0.057768094367424007,0.042744455804674085,0.035958649603711465,0.049491794411357606,0.091709168470983843,0.19364177737825319,0.0629094947740625,0.052959560555611275,0.042744455804674078,0.029112414096378266,0.018895270440438375,0.017675301720362222,0.1276280172112168,0.064645225047191932,0.044777028547696177,0.044277701147431986,0.034050239174322212,0.024084148798837943,0.020041013272323459,0.011572234571877133,0.009448900895785246]}